,x1,y1,z1,x2,y2,z2,x3,y3,z3,x4,y4,z4,x5,y5,z5,x6,y6,z6,x7,y7,z7,x8,y8,z8,x9,y9,z9,x10,y10,z10,x11,y11,z11,x12,y12,z12,x13,y13,z13,x14,y14,z14,x15,y15,z15,x16,y16,z16,x17,y17,z17,x18,y18,z18,x19,y19,z19,x20,y20,z20,x21,y21,z21,x22,y22,z22,x23,y23,z23,x24,y24,z24,x25,y25,z25,x26,y26,z26,x27,y27,z27,x28,y28,z28,x29,y29,z29,x30,y30,z30,x31,y31,z31,x32,y32,z32,x33,y33,z33,x34,y34,z34,x35,y35,z35,x36,y36,z36,x37,y37,z37,x38,y38,z38,x39,y39,z39,x40,y40,z40,x41,y41,z41,x42,y42,z42,x43,y43,z43,x44,y44,z44,x45,y45,z45,x46,y46,z46,x47,y47,z47,x48,y48,z48,x49,y49,z49,x50,y50,z50,x51,y51,z51,x52,y52,z52,x53,y53,z53,x54,y54,z54,x55,y55,z55,x56,y56,z56,x57,y57,z57,x58,y58,z58,x59,y59,z59,x60,y60,z60,x61,y61,z61,x62,y62,z62,x63,y63,z63,x64,y64,z64,x65,y65,z65,x66,y66,z66,x67,y67,z67,x68,y68,z68,x69,y69,z69,x70,y70,z70,x71,y71,z71,x72,y72,z72,x73,y73,z73,x74,y74,z74,x75,y75,z75,x76,y76,z76,x77,y77,z77,x78,y78,z78,x79,y79,z79,x80,y80,z80,x81,y81,z81,x82,y82,z82,x83,y83,z83,x84,y84,z84,x85,y85,z85,x86,y86,z86,x87,y87,z87,x88,y88,z88,x89,y89,z89,x90,y90,z90,x91,y91,z91,x92,y92,z92,x93,y93,z93,x94,y94,z94,x95,y95,z95,x96,y96,z96,x97,y97,z97,x98,y98,z98,x99,y99,z99,x100,y100,z100,x101,y101,z101,x102,y102,z102,x103,y103,z103,x104,y104,z104,x105,y105,z105,x106,y106,z106,x107,y107,z107,x108,y108,z108,x109,y109,z109,x110,y110,z110,x111,y111,z111,x112,y112,z112,x113,y113,z113,x114,y114,z114,x115,y115,z115,x116,y116,z116,x117,y117,z117,x118,y118,z118,x119,y119,z119,x120,y120,z120,x121,y121,z121,x122,y122,z122,x123,y123,z123,x124,y124,z124,x125,y125,z125,x126,y126,z126,x127,y127,z127,x128,y128,z128,x129,y129,z129,x130,y130,z130,x131,y131,z131,x132,y132,z132,x133,y133,z133,x134,y134,z134,x135,y135,z135,x136,y136,z136,x137,y137,z137,x138,y138,z138,x139,y139,z139,x140,y140,z140,x141,y141,z141,x142,y142,z142,x143,y143,z143,x144,y144,z144,x145,y145,z145,x146,y146,z146,x147,y147,z147,x148,y148,z148,x149,y149,z149,x150,y150,z150,x151,y151,z151,x152,y152,z152,x153,y153,z153,x154,y154,z154,x155,y155,z155,x156,y156,z156,x157,y157,z157,x158,y158,z158,x159,y159,z159,x160,y160,z160,x161,y161,z161,x162,y162,z162,x163,y163,z163,x164,y164,z164,x165,y165,z165,x166,y166,z166,x167,y167,z167,x168,y168,z168,x169,y169,z169,x170,y170,z170,x171,y171,z171,x172,y172,z172,x173,y173,z173,x174,y174,z174,x175,y175,z175,x176,y176,z176,x177,y177,z177,x178,y178,z178,x179,y179,z179,x180,y180,z180,x181,y181,z181,x182,y182,z182,x183,y183,z183,x184,y184,z184,x185,y185,z185,x186,y186,z186,x187,y187,z187,x188,y188,z188,x189,y189,z189,x190,y190,z190,x191,y191,z191,x192,y192,z192,x193,y193,z193,x194,y194,z194,x195,y195,z195,x196,y196,z196,x197,y197,z197,x198,y198,z198,x199,y199,z199,x200,y200,z200,x201,y201,z201,x202,y202,z202,x203,y203,z203,x204,y204,z204,x205,y205,z205,x206,y206,z206,x207,y207,z207,x208,y208,z208,x209,y209,z209,x210,y210,z210,x211,y211,z211,x212,y212,z212,x213,y213,z213,x214,y214,z214,x215,y215,z215,x216,y216,z216,x217,y217,z217,x218,y218,z218,x219,y219,z219,x220,y220,z220,x221,y221,z221,x222,y222,z222,x223,y223,z223,x224,y224,z224,x225,y225,z225,x226,y226,z226,x227,y227,z227,x228,y228,z228,x229,y229,z229,x230,y230,z230,x231,y231,z231,x232,y232,z232,x233,y233,z233,x234,y234,z234,x235,y235,z235,x236,y236,z236,x237,y237,z237,x238,y238,z238,x239,y239,z239,x240,y240,z240,x241,y241,z241,x242,y242,z242,x243,y243,z243,x244,y244,z244,x245,y245,z245,x246,y246,z246,x247,y247,z247,x248,y248,z248,x249,y249,z249,x250,y250,z250,x251,y251,z251,x252,y252,z252,x253,y253,z253,x254,y254,z254,x255,y255,z255,x256,y256,z256,x257,y257,z257,x258,y258,z258,x259,y259,z259,x260,y260,z260,x261,y261,z261,x262,y262,z262,x263,y263,z263,x264,y264,z264,x265,y265,z265,x266,y266,z266,x267,y267,z267,x268,y268,z268,x269,y269,z269,x270,y270,z270,x271,y271,z271,x272,y272,z272,x273,y273,z273,x274,y274,z274,x275,y275,z275,x276,y276,z276,x277,y277,z277,x278,y278,z278,x279,y279,z279,x280,y280,z280,x281,y281,z281,x282,y282,z282,x283,y283,z283,x284,y284,z284,x285,y285,z285,x286,y286,z286,x287,y287,z287,x288,y288,z288,x289,y289,z289,x290,y290,z290,x291,y291,z291,x292,y292,z292,x293,y293,z293,x294,y294,z294,x295,y295,z295,x296,y296,z296,x297,y297,z297,x298,y298,z298,x299,y299,z299,x300,y300,z300,x301,y301,z301,x302,y302,z302,x303,y303,z303,x304,y304,z304,x305,y305,z305,x306,y306,z306,x307,y307,z307,x308,y308,z308,x309,y309,z309,x310,y310,z310,x311,y311,z311,x312,y312,z312,x313,y313,z313,x314,y314,z314,x315,y315,z315,x316,y316,z316,x317,y317,z317,x318,y318,z318,x319,y319,z319,x320,y320,z320,x321,y321,z321,x322,y322,z322,x323,y323,z323,x324,y324,z324,x325,y325,z325,x326,y326,z326,x327,y327,z327,x328,y328,z328,x329,y329,z329,x330,y330,z330,x331,y331,z331,x332,y332,z332,x333,y333,z333,x334,y334,z334,x335,y335,z335,x336,y336,z336,x337,y337,z337,x338,y338,z338,x339,y339,z339,x340,y340,z340,x341,y341,z341,x342,y342,z342,x343,y343,z343,x344,y344,z344,x345,y345,z345,x346,y346,z346,x347,y347,z347,x348,y348,z348,x349,y349,z349,x350,y350,z350,x351,y351,z351,x352,y352,z352,x353,y353,z353,x354,y354,z354,x355,y355,z355,x356,y356,z356,x357,y357,z357,x358,y358,z358,x359,y359,z359,x360,y360,z360,x361,y361,z361,x362,y362,z362,x363,y363,z363,x364,y364,z364,x365,y365,z365,x366,y366,z366,x367,y367,z367,x368,y368,z368,x369,y369,z369,x370,y370,z370,x371,y371,z371,x372,y372,z372,x373,y373,z373,x374,y374,z374,x375,y375,z375,x376,y376,z376,x377,y377,z377,x378,y378,z378,x379,y379,z379,x380,y380,z380,x381,y381,z381,x382,y382,z382,x383,y383,z383,x384,y384,z384,x385,y385,z385,x386,y386,z386,x387,y387,z387,x388,y388,z388
PC1,0.006691,0.030529,0.040992,0.005145,0.029104,0.041984,0.004856,0.028774,0.042261,0.001749,0.030456,0.042504,0.002438,0.031145,0.042393,0.003170,0.029660,0.042082,-0.001824,0.033387,0.041941,-0.002480,0.032677,0.042744,0.003408,0.030440,0.042003,0.006810,0.032128,0.040010,0.009271,0.031029,0.039274,0.004022,0.032897,0.040804,0.005365,0.031712,0.041178,0.001546,0.031946,0.042135,0.008338,0.029683,0.040450,0.005971,0.029894,0.041583,-0.001379,0.031362,0.042872,0.008784,0.031483,0.039386,0.005722,0.031202,0.041073,0.001719,0.031015,0.042142,0.003079,0.030977,0.041571,0.004210,0.029686,0.041904,0.003077,0.029531,0.042110,0.002799,0.030859,0.041695,0.005505,0.028180,0.042124,0.004155,0.028790,0.042033,0.003230,0.030153,0.041754,0.004020,0.029890,0.041709,0.005331,0.028611,0.041971,0.004290,0.028844,0.041617,0.003668,0.030187,0.041685,0.004648,0.029044,0.041568,0.001699,0.031003,0.041705,0.000653,0.033022,0.040873,0.004933,0.028967,0.041623,0.000287,0.032664,0.042430,0.004108,0.029623,0.041246,0.001293,0.031452,0.042484,0.001537,0.033350,0.040978,0.005523,0.030344,0.041462,0.005476,0.032586,0.040363,0.003862,0.031872,0.041646,0.007301,0.029934,0.041243,0.003856,0.031110,0.041653,0.002804,0.028630,0.041504,0.004143,0.029578,0.041824,0.003371,0.028996,0.041634,0.002531,0.032132,0.040873,0.003738,0.030816,0.041600,0.003289,0.029027,0.042514,0.006439,0.032077,0.040591,0.002438,0.032946,0.041484,0.001687,0.030888,0.042031,0.008999,0.030144,0.039326,0.008169,0.030403,0.040213,0.000594,0.032786,0.042133,0.005108,0.032503,0.041143,0.008100,0.031867,0.039427,0.006129,0.031784,0.039838,0.003988,0.032180,0.040323,0.006301,0.032030,0.039532,0.002296,0.031009,0.041542,0.002079,0.031715,0.041362,0.004892,0.029438,0.041883,0.004398,0.029111,0.041853,0.002452,0.030092,0.041857,0.000402,0.029652,0.042694,0.008101,0.031960,0.039724,0.008153,0.031833,0.039231,0.006145,0.031402,0.040284,0.003659,0.029559,0.041139,0.004219,0.029072,0.041415,0.004063,0.029230,0.041275,0.004165,0.029169,0.041464,0.004380,0.029240,0.041226,0.004051,0.029666,0.041625,0.004348,0.029444,0.041334,0.004873,0.031077,0.040549,0.003822,0.030724,0.041384,0.004630,0.030032,0.041126,0.005492,0.030487,0.040756,0.004048,0.029629,0.041084,0.004856,0.030118,0.040916,0.003710,0.029487,0.041065,0.003930,0.029718,0.041012,0.009260,0.030622,0.039745,0.008947,0.030080,0.040705,0.009429,0.031157,0.039511,0.009438,0.030413,0.040159,0.008574,0.031444,0.039531,0.008317,0.030260,0.041119,0.008261,0.031068,0.039452,0.008739,0.030624,0.039755,0.008798,0.030541,0.040190,0.008442,0.030208,0.040645,0.006328,0.030070,0.041203,0.007662,0.030266,0.040478,0.007918,0.030381,0.039983,0.007096,0.030727,0.039685,0.007132,0.030196,0.040916,0.006269,0.031342,0.040081,0.006650,0.030559,0.040326,0.006499,0.030256,0.040725,0.005540,0.030084,0.040960,0.004553,0.029958,0.041102,0.009335,0.030339,0.039155,0.006384,0.028314,0.040309,0.006986,0.026914,0.040408,0.004580,0.028204,0.041329,0.007067,0.025275,0.040029,0.008363,0.029773,0.039572,0.010515,0.027709,0.039661,0.003978,0.028488,0.041525,0.009158,0.028953,0.038936,0.004738,0.028601,0.041345,0.006187,0.030078,0.039596,0.004584,0.031880,0.040502,0.004730,0.030515,0.041138,0.005357,0.028542,0.041031,0.007155,0.027098,0.038909,0.007053,0.031259,0.039530,0.007867,0.027346,0.039634,0.010157,0.029670,0.039089,0.007810,0.028207,0.039898,0.005373,0.029038,0.040427,0.004799,0.029565,0.040954,0.007493,0.027384,0.039864,0.007771,0.029545,0.038629,0.005829,0.029072,0.039887,0.004669,0.030825,0.039695,0.004714,0.031461,0.041201,0.008160,0.026300,0.040389,0.007987,0.030137,0.039675,0.008509,0.029832,0.038932,0.009206,0.027277,0.038891,0.008638,0.030454,0.039197,0.009231,0.029361,0.038867,0.010174,0.027514,0.040821,0.010453,0.028193,0.039212,0.010684,0.028724,0.038942,0.010340,0.027665,0.040510,0.004579,0.028575,0.041506,0.006878,0.029181,0.041411,0.008365,0.029389,0.041242,0.005447,0.028765,0.041385,0.004570,0.028225,0.041495,0.009471,0.029149,0.040057,0.009487,0.028302,0.038912,0.005187,0.028416,0.041299,0.005546,0.028209,0.041057,0.009153,0.031439,0.039220,0.005115,0.023721,0.038696,0.007261,0.031463,0.039624,0.006827,0.026647,0.039727,0.010218,0.029973,0.039046,0.009689,0.031001,0.039111,0.008448,0.025949,0.038630,0.006636,0.031547,0.040113,0.011374,0.028466,0.039590,0.008137,0.031578,0.039339,0.010771,0.027385,0.039159,0.005554,0.029083,0.041006,0.010470,0.028503,0.039329,0.009720,0.029541,0.039061,0.005115,0.030685,0.041106,0.005212,0.031823,0.040683,0.004675,0.028525,0.041491,0.004641,0.028589,0.041583,0.005795,0.028826,0.041276,0.005241,0.028483,0.041176,0.006732,0.028864,0.041268,0.005287,0.028551,0.041356,0.005433,0.028684,0.041024,0.006453,0.029183,0.040757,0.006512,0.029704,0.040565,0.006674,0.030400,0.040423,0.007452,0.030841,0.039912,0.006949,0.029534,0.040582,0.007686,0.030194,0.040178,0.006122,0.029256,0.040799,0.007310,0.029418,0.040529,0.006158,0.028899,0.040974,0.007055,0.029210,0.040790,0.010340,0.029926,0.040248,0.009738,0.031033,0.039281,0.010381,0.030348,0.039459,0.010049,0.030801,0.039230,0.010283,0.030064,0.039796,0.010109,0.029874,0.040784,0.009363,0.030915,0.039303,0.010158,0.030098,0.040124,0.010136,0.030131,0.039634,0.009884,0.030721,0.039459,0.009228,0.029748,0.041064,0.009927,0.029984,0.039861,0.009500,0.030420,0.039660,0.008772,0.030854,0.039362,0.009569,0.029839,0.040424,0.008126,0.031093,0.039649,0.008931,0.030472,0.039863,0.009038,0.029873,0.040143,0.008829,0.029600,0.040606,0.007514,0.029137,0.041072,0.006745,0.027973,0.039702,0.006129,0.031217,0.039626,0.005266,0.031893,0.040898,0.005415,0.030052,0.041000,0.007549,0.029055,0.038797,0.005207,0.031069,0.041027,0.009870,0.029115,0.038734,0.009933,0.029135,0.038846,0.008755,0.028995,0.038729,0.009965,0.028962,0.039102,0.007707,0.027924,0.038645,0.006787,0.025876,0.038970,0.004549,0.024763,0.039304,0.006600,0.025955,0.040315,0.006609,0.026715,0.040851,0.007971,0.028318,0.041245,0.007236,0.027727,0.040901,0.009287,0.028661,0.040747,0.006229,0.026958,0.040883,0.010112,0.027892,0.039348,0.010528,0.027677,0.038766,0.010624,0.028767,0.039070,0.006145,0.026779,0.040951,0.006782,0.025470,0.039095,0.009439,0.029580,0.039106,0.006030,0.028405,0.040612,0.003162,0.029861,0.042414,0.002555,0.033467,0.040701,-0.000203,0.032227,0.042340,0.005367,0.029244,0.042268,0.000859,0.031017,0.042469,-0.001741,0.032743,0.042618,0.004146,0.028815,0.042167,-0.000047,0.031164,0.042864,0.000499,0.033598,0.040934,0.005129,0.029937,0.041955,0.005380,0.032956,0.040403,0.002614,0.031975,0.041971,0.006937,0.029302,0.041854,0.002281,0.030914,0.042217,0.001144,0.033045,0.041533,-0.001621,0.033173,0.042014,0.004742,0.032829,0.041168,0.002424,0.029639,0.042571,0.006288,0.030197,0.041424,0.006745,0.032380,0.039903,0.004868,0.031737,0.041403,0.008081,0.029300,0.040827,0.005389,0.030939,0.041466,0.006061,0.032034,0.040637,0.009219,0.029817,0.039266,0.008059,0.030107,0.040144,0.007305,0.031806,0.039501,0.007901,0.031709,0.039172,0.006021,0.031267,0.040295,0.007839,0.032240,0.039253,0.005453,0.032622,0.039782,0.002808,0.032673,0.040161,0.005764,0.032697,0.039511,0.009340,0.030255,0.039090,0.008384,0.029476,0.039583,0.010441,0.027532,0.039655,0.009191,0.028877,0.038771,0.010239,0.029584,0.038992,0.008006,0.025955,0.040431,0.007838,0.030120,0.039514,0.008500,0.029829,0.038747,0.009300,0.027106,0.038643,0.008496,0.030448,0.039141,0.009318,0.029085,0.038736,0.010085,0.027105,0.040935,0.010586,0.027759,0.039001,0.010702,0.028444,0.038739,0.010347,0.027297,0.040652,0.006694,0.028814,0.041264,0.008235,0.029123,0.041228,0.005342,0.028632,0.041337,0.009375,0.028942,0.039955,0.009481,0.027955,0.038705,0.007108,0.031693,0.039505,0.008272,0.025499,0.038398,0.007085,0.031532,0.040122,0.011636,0.028372,0.039414,0.008301,0.031722,0.039263,0.011012,0.027066,0.038950,0.010555,0.028353,0.039103,0.010487,0.029613,0.038854,0.009773,0.029346,0.038480,0.006345,0.028275,0.040347,0.002954,0.029364,0.042125,0.002634,0.030970,0.041530,0.004374,0.029397,0.042039,0.004758,0.028686,0.041463,0.003330,0.029248,0.042131,0.002783,0.030835,0.041654,0.004594,0.030448,0.041254,0.005271,0.028528,0.041125,0.005746,0.027943,0.042170,0.003862,0.028772,0.042054,0.003059,0.030371,0.041650,0.004045,0.029929,0.041649,0.005380,0.028367,0.041898,0.004621,0.028631,0.041721,0.003750,0.030168,0.041705,0.004828,0.028910,0.041466,0.007730,0.028103,0.039974,0.005358,0.028853,0.040473,0.004649,0.029541,0.041055,0.007533,0.027395,0.039845,0.004729,0.031599,0.041221,0.005165,0.028616,0.041501,0.004814,0.029134,0.041960,0.004600,0.028743,0.041604,0.005083,0.028306,0.041457,0.005167,0.028078,0.041232,0.003543,0.031154,0.041379,0.005493,0.029202,0.041049,0.004925,0.030788,0.041168,0.002056,0.030926,0.041452,0.001896,0.031769,0.041197,0.004863,0.029179,0.042045,0.004465,0.028646,0.041620,0.004569,0.028803,0.041857,0.004557,0.028590,0.041689,0.004241,0.028168,0.041402,0.003903,0.028805,0.042097,0.003581,0.028437,0.041580,0.002877,0.028434,0.041902,0.004657,0.032049,0.040589,0.001218,0.031568,0.041329,-0.000781,0.033523,0.040767,0.002327,0.032815,0.040254,0.004932,0.032034,0.040814,0.002843,0.028948,0.042474,0.001317,0.031514,0.042626,0.000717,0.031817,0.042517,-0.003412,0.033417,0.042018,-0.004113,0.032890,0.042812,-0.002625,0.031644,0.043009,0.002458,0.028037,0.042262,0.001870,0.029427,0.042715,0.000329,0.031677,0.041943,-0.000550,0.029296,0.043032,0.006660,0.026439,0.040435,0.006903,0.024898,0.039953,0.006577,0.025103,0.038991,0.007862,0.027193,0.039635,0.004441,0.028085,0.041458,0.004448,0.023032,0.038437,0.006579,0.026406,0.039623,0.006280,0.030110,0.039412,0.007087,0.031341,0.039253,0.007788,0.029332,0.038376,0.005865,0.028790,0.039817,0.004534,0.030929,0.039569,0.006742,0.027891,0.039753,0.005370,0.029913,0.041048,0.005879,0.028487,0.040744,0.005054,0.031166,0.041106,0.006046,0.031221,0.039370,0.005033,0.032146,0.040886,0.007697,0.028964,0.038588,0.007207,0.026766,0.038673,0.006418,0.025618,0.040301,0.004088,0.024418,0.039207,0.006545,0.025380,0.038632,0.007682,0.027821,0.038428,0.008666,0.028886,0.038562,0.009956,0.028974,0.038595,0.009906,0.029004,0.038703,0.009908,0.030876,0.038993,0.010028,0.028634,0.038967,0.008596,0.031875,0.039178,0.009391,0.031260,0.038645,0.009107,0.031697,0.039114,0.006859,0.027288,0.040983,0.006337,0.026226,0.040926,0.007685,0.028072,0.041326,0.009031,0.028430,0.040851,0.010150,0.027712,0.039204,0.010826,0.028286,0.038921,0.010655,0.026983,0.038511,0.006119,0.026710,0.040935,0.006000,0.026458,0.041016,0.009486,0.029439,0.038991
PC2,0.035615,-0.027900,0.019135,0.033889,-0.034047,0.016515,0.033368,-0.033818,0.016159,0.033029,-0.032247,0.015680,0.031542,-0.031601,0.016283,0.033351,-0.034302,0.016538,0.033605,-0.027962,0.017237,0.033334,-0.028427,0.016316,0.036292,-0.029413,0.018137,0.035784,-0.026767,0.020261,0.034129,-0.028882,0.020408,0.036510,-0.027339,0.019590,0.036268,-0.026364,0.019356,0.036071,-0.026819,0.018089,0.034639,-0.029139,0.019246,0.036834,-0.030653,0.018380,0.033319,-0.030268,0.015402,0.034412,-0.028154,0.020541,0.035842,-0.026857,0.019394,0.036000,-0.027910,0.018022,0.033014,-0.033053,0.017107,0.034088,-0.034619,0.016868,0.033876,-0.034551,0.016563,0.033979,-0.033420,0.017360,0.033613,-0.035741,0.015981,0.032336,-0.034932,0.016306,0.032748,-0.033975,0.017162,0.034302,-0.034548,0.017658,0.034668,-0.035791,0.016579,0.035424,-0.035782,0.017150,0.035905,-0.034077,0.017622,0.035939,-0.035600,0.017545,0.032170,-0.032285,0.016325,0.035593,-0.029047,0.018227,0.035572,-0.035717,0.017605,0.035340,-0.028070,0.017314,0.037118,-0.031949,0.018132,0.035252,-0.029248,0.017251,0.036054,-0.027789,0.019015,0.036067,-0.029001,0.018542,0.036503,-0.026597,0.020241,0.036318,-0.026553,0.018830,0.035882,-0.029701,0.018591,0.035872,-0.027557,0.018608,0.036645,-0.032922,0.017051,0.034852,-0.034814,0.016971,0.036401,-0.033776,0.016910,0.035560,-0.030666,0.018910,0.035929,-0.032905,0.017778,0.032942,-0.033405,0.015715,0.035755,-0.026045,0.019854,0.036325,-0.026437,0.018830,0.031028,-0.031531,0.016316,0.033834,-0.028681,0.020132,0.033971,-0.027408,0.019585,0.035499,-0.027348,0.017978,0.036524,-0.026099,0.019522,0.035398,-0.027936,0.020585,0.036722,-0.029224,0.020146,0.036426,-0.029802,0.019264,0.036320,-0.028409,0.020533,0.033094,-0.032690,0.016859,0.035392,-0.031656,0.017265,0.033953,-0.034589,0.016757,0.034768,-0.034551,0.016627,0.035806,-0.030441,0.017654,0.033847,-0.031815,0.015598,0.034397,-0.026470,0.020342,0.033164,-0.027579,0.020557,0.034552,-0.026401,0.020172,0.037697,-0.033405,0.018055,0.036929,-0.034670,0.017546,0.037330,-0.033944,0.017697,0.036671,-0.034467,0.017354,0.037314,-0.034719,0.017919,0.037065,-0.033963,0.017715,0.037268,-0.034139,0.017912,0.036076,-0.031737,0.018944,0.037381,-0.032749,0.018079,0.037722,-0.033330,0.018336,0.037243,-0.032650,0.018914,0.038073,-0.033737,0.018302,0.038098,-0.033143,0.018646,0.037912,-0.033831,0.018214,0.038381,-0.033262,0.018393,0.035251,-0.029988,0.020058,0.035203,-0.029763,0.019087,0.035173,-0.029463,0.020382,0.035024,-0.029860,0.019650,0.035416,-0.029237,0.020406,0.035918,-0.030237,0.018810,0.035794,-0.029789,0.020484,0.035514,-0.030336,0.020090,0.035722,-0.030358,0.019744,0.035672,-0.030350,0.019381,0.037117,-0.031197,0.018727,0.036490,-0.031287,0.019395,0.036044,-0.031192,0.019780,0.035762,-0.030452,0.020057,0.036803,-0.031390,0.018953,0.036156,-0.030869,0.019459,0.036456,-0.031872,0.019309,0.037441,-0.032306,0.018986,0.037874,-0.032318,0.018651,0.038095,-0.032445,0.018400,0.034377,-0.031157,0.020503,0.033885,-0.036211,0.017831,0.032155,-0.036622,0.016623,0.035272,-0.034943,0.016362,0.034182,-0.037056,0.017943,0.034675,-0.032968,0.020107,0.032034,-0.032304,0.018144,0.035840,-0.034031,0.016780,0.035093,-0.034091,0.020229,0.035048,-0.035280,0.016992,0.032811,-0.032404,0.016994,0.032086,-0.031483,0.017726,0.034115,-0.033755,0.017411,0.035016,-0.035972,0.017224,0.032327,-0.035326,0.018577,0.033674,-0.032573,0.019244,0.032105,-0.036642,0.017995,0.033955,-0.031659,0.020539,0.032733,-0.036264,0.018039,0.033771,-0.034167,0.016918,0.034227,-0.034478,0.017098,0.034046,-0.036287,0.018421,0.034213,-0.034124,0.019449,0.033221,-0.033547,0.016984,0.032559,-0.031493,0.017374,0.033279,-0.032654,0.017601,0.033344,-0.035666,0.018909,0.034529,-0.033273,0.019637,0.034732,-0.032977,0.019586,0.034665,-0.036089,0.019369,0.034837,-0.031281,0.020379,0.035158,-0.032643,0.020457,0.032562,-0.034078,0.018568,0.033536,-0.032573,0.019819,0.033697,-0.032932,0.019956,0.032176,-0.033094,0.018163,0.035084,-0.035246,0.017184,0.035586,-0.031768,0.017888,0.034989,-0.030593,0.017502,0.035586,-0.032943,0.017966,0.035546,-0.033543,0.017235,0.033887,-0.030089,0.018752,0.034677,-0.034552,0.019632,0.035125,-0.036013,0.017518,0.035038,-0.036022,0.018230,0.034298,-0.029483,0.020584,0.031773,-0.037940,0.017979,0.035099,-0.030587,0.020124,0.030891,-0.036889,0.017266,0.033725,-0.030307,0.020489,0.033857,-0.029741,0.020653,0.033469,-0.036992,0.019046,0.035119,-0.031487,0.019536,0.032611,-0.032442,0.019299,0.035042,-0.029854,0.020453,0.032181,-0.032533,0.019083,0.035738,-0.035014,0.018462,0.033334,-0.033752,0.019495,0.033107,-0.029651,0.020250,0.035067,-0.033135,0.018240,0.032942,-0.031288,0.018894,0.035250,-0.034884,0.016692,0.035332,-0.034699,0.016876,0.035659,-0.034086,0.017645,0.034975,-0.034935,0.017765,0.035324,-0.033679,0.017702,0.035349,-0.034611,0.017492,0.036011,-0.034959,0.018115,0.036194,-0.034225,0.018639,0.036237,-0.033860,0.018864,0.036191,-0.032725,0.018678,0.035643,-0.031714,0.019287,0.036507,-0.033147,0.018736,0.036500,-0.032900,0.019114,0.036875,-0.034048,0.018461,0.036418,-0.033654,0.018811,0.036146,-0.034216,0.018128,0.036300,-0.033913,0.018351,0.034981,-0.030776,0.019102,0.034778,-0.030569,0.020442,0.035072,-0.031085,0.020033,0.034584,-0.030621,0.020398,0.034949,-0.030812,0.019597,0.035274,-0.031181,0.018514,0.034899,-0.030999,0.020375,0.035453,-0.031544,0.019211,0.035593,-0.031849,0.019808,0.035471,-0.031394,0.020119,0.035534,-0.032197,0.018022,0.036216,-0.032712,0.019490,0.035946,-0.032389,0.019853,0.035251,-0.031222,0.020141,0.035806,-0.032456,0.018889,0.035502,-0.031359,0.019721,0.036514,-0.032524,0.019511,0.036448,-0.033245,0.019231,0.036172,-0.033396,0.018552,0.035516,-0.033429,0.017791,0.034078,-0.035451,0.018361,0.032468,-0.032307,0.018706,0.031074,-0.031557,0.018367,0.034814,-0.034254,0.018156,0.032172,-0.033991,0.018623,0.033858,-0.032840,0.018231,0.034747,-0.034564,0.020165,0.034582,-0.033468,0.020258,0.034774,-0.034219,0.019347,0.034339,-0.032596,0.020241,0.034429,-0.035357,0.018920,0.033927,-0.037093,0.018450,0.030760,-0.037850,0.017867,0.032882,-0.037157,0.017115,0.034663,-0.035330,0.017846,0.033703,-0.032974,0.017962,0.034124,-0.034341,0.018385,0.033510,-0.031753,0.017203,0.033755,-0.036274,0.016048,0.032669,-0.031259,0.017922,0.032526,-0.031126,0.019874,0.033416,-0.031281,0.020210,0.034589,-0.036090,0.016730,0.032329,-0.037098,0.018118,0.034918,-0.032250,0.020403,0.035311,-0.035369,0.018301,0.035267,-0.029242,0.017380,0.035708,-0.026242,0.019535,0.036477,-0.025627,0.017742,0.035868,-0.030420,0.017336,0.035152,-0.027139,0.017476,0.035009,-0.026578,0.017046,0.035475,-0.031712,0.017050,0.034493,-0.028257,0.016435,0.035300,-0.026567,0.019361,0.035902,-0.028291,0.017604,0.035759,-0.025850,0.020198,0.036584,-0.025349,0.018375,0.035355,-0.029622,0.017557,0.036014,-0.026400,0.017680,0.036825,-0.025393,0.018690,0.035738,-0.025848,0.017932,0.036850,-0.024921,0.019361,0.034563,-0.030238,0.016796,0.035231,-0.027547,0.018579,0.035132,-0.026009,0.020222,0.036637,-0.025393,0.019172,0.034240,-0.028710,0.018851,0.035923,-0.026176,0.018893,0.035594,-0.025108,0.019738,0.032707,-0.028372,0.019933,0.033582,-0.027210,0.019609,0.033900,-0.025884,0.020585,0.032331,-0.026964,0.020476,0.034156,-0.025816,0.020090,0.034469,-0.027502,0.020814,0.035760,-0.028412,0.020175,0.035556,-0.028840,0.019477,0.035385,-0.027324,0.020367,0.034087,-0.031118,0.020548,0.034311,-0.032960,0.020103,0.031645,-0.032277,0.017833,0.034780,-0.034120,0.020254,0.033614,-0.031644,0.020665,0.032843,-0.035691,0.018876,0.034275,-0.033038,0.019683,0.034327,-0.032892,0.019573,0.034342,-0.036204,0.019429,0.034506,-0.031073,0.020374,0.034903,-0.032829,0.020507,0.032003,-0.034186,0.018420,0.033021,-0.032629,0.019962,0.033464,-0.033073,0.020039,0.031612,-0.033216,0.017892,0.035127,-0.031813,0.017607,0.034574,-0.030642,0.016940,0.035010,-0.032865,0.017878,0.033463,-0.030024,0.018347,0.034452,-0.034670,0.019669,0.034455,-0.030101,0.020086,0.032977,-0.037211,0.018993,0.034176,-0.031382,0.019504,0.032164,-0.032332,0.019412,0.034312,-0.029593,0.020424,0.031599,-0.032540,0.019138,0.033007,-0.033827,0.019537,0.033290,-0.030363,0.020695,0.032181,-0.029453,0.020656,0.033754,-0.036264,0.017710,0.032366,-0.034394,0.016281,0.032188,-0.032853,0.016976,0.033300,-0.034732,0.016542,0.034903,-0.035294,0.016839,0.032935,-0.034592,0.016333,0.033281,-0.033358,0.017385,0.034287,-0.033896,0.017346,0.034962,-0.036057,0.017143,0.033063,-0.035704,0.015717,0.031711,-0.034737,0.016144,0.032481,-0.033680,0.017255,0.034413,-0.034408,0.017778,0.034759,-0.036054,0.016626,0.035469,-0.035983,0.016989,0.035829,-0.034076,0.017707,0.035847,-0.035726,0.017731,0.032612,-0.036316,0.017894,0.033808,-0.034390,0.016876,0.034236,-0.034574,0.016993,0.033869,-0.036290,0.018304,0.033239,-0.032429,0.017733,0.035486,-0.035967,0.017755,0.034618,-0.035234,0.016702,0.034988,-0.035164,0.017016,0.035256,-0.036164,0.017312,0.035044,-0.036176,0.018056,0.034717,-0.032636,0.017843,0.035563,-0.035081,0.018314,0.034712,-0.032974,0.018172,0.032432,-0.032741,0.016620,0.034220,-0.031630,0.017268,0.033019,-0.034661,0.016381,0.034944,-0.034738,0.016521,0.034007,-0.034642,0.016358,0.035062,-0.034674,0.016622,0.035087,-0.034860,0.016103,0.032963,-0.034151,0.016070,0.035587,-0.033828,0.016568,0.034655,-0.033637,0.016251,0.031726,-0.031296,0.017864,0.032214,-0.031239,0.016262,0.034246,-0.027310,0.018443,0.034452,-0.029418,0.019319,0.032353,-0.030845,0.018748,0.032630,-0.033599,0.015691,0.032107,-0.031444,0.015236,0.030965,-0.030719,0.015872,0.033073,-0.026550,0.017349,0.032622,-0.027087,0.015968,0.031543,-0.029430,0.014697,0.034337,-0.032855,0.016004,0.031886,-0.032945,0.014934,0.030835,-0.030419,0.016235,0.032147,-0.031698,0.014746,0.031821,-0.036810,0.016465,0.033768,-0.037082,0.017867,0.031827,-0.037079,0.017971,0.031660,-0.036516,0.017854,0.035074,-0.033302,0.017098,0.030913,-0.038054,0.017853,0.029957,-0.036731,0.017148,0.032489,-0.032122,0.017016,0.033159,-0.032267,0.019281,0.033899,-0.034191,0.019492,0.033042,-0.033626,0.016929,0.032356,-0.031156,0.017455,0.034101,-0.035557,0.018263,0.035111,-0.034481,0.018146,0.035373,-0.035487,0.018155,0.033971,-0.032760,0.018142,0.032122,-0.031964,0.018665,0.030595,-0.031044,0.018401,0.031772,-0.033854,0.018647,0.031863,-0.035288,0.018547,0.032349,-0.037233,0.016887,0.029730,-0.037863,0.017749,0.033519,-0.037199,0.018417,0.034215,-0.035347,0.018929,0.034575,-0.034281,0.019350,0.034461,-0.034676,0.020191,0.034391,-0.033611,0.020338,0.033360,-0.029503,0.020780,0.034006,-0.032769,0.020291,0.033673,-0.027192,0.020677,0.032602,-0.028534,0.020803,0.033640,-0.029128,0.020583,0.033536,-0.034359,0.018102,0.034035,-0.035417,0.017590,0.033164,-0.033009,0.017840,0.033069,-0.031811,0.016939,0.032347,-0.031197,0.017683,0.033001,-0.031355,0.020330,0.032013,-0.031210,0.019887,0.033624,-0.036257,0.015882,0.034238,-0.036098,0.016544,0.034637,-0.032340,0.020433
PC3,0.035074,0.029314,-0.022135,0.036146,0.024146,-0.022023,0.036248,0.025166,-0.021364,0.034686,0.024902,-0.020284,0.034871,0.024461,-0.020434,0.037534,0.023400,-0.022122,0.032095,0.025115,-0.021116,0.032516,0.026898,-0.019695,0.036992,0.029256,-0.021790,0.036084,0.028384,-0.023925,0.035268,0.028415,-0.024984,0.035413,0.027485,-0.023318,0.035823,0.029171,-0.022089,0.035594,0.029018,-0.021001,0.035483,0.029288,-0.023368,0.037005,0.029039,-0.022735,0.033448,0.027148,-0.020064,0.035914,0.028639,-0.024793,0.035109,0.029374,-0.022029,0.036317,0.029360,-0.021383,0.036890,0.022704,-0.022867,0.036880,0.023235,-0.022678,0.037670,0.023557,-0.022118,0.038348,0.022754,-0.022675,0.037906,0.022902,-0.021653,0.038612,0.023042,-0.021353,0.039047,0.022471,-0.021976,0.039247,0.022543,-0.022235,0.038086,0.022524,-0.021976,0.037580,0.022870,-0.023502,0.038079,0.023460,-0.023123,0.038152,0.022951,-0.023590,0.035349,0.023022,-0.022451,0.033684,0.024733,-0.023388,0.038404,0.022494,-0.023001,0.034607,0.027205,-0.020688,0.036353,0.028244,-0.023679,0.035418,0.027939,-0.020818,0.035177,0.026506,-0.023066,0.036670,0.029342,-0.022377,0.035710,0.028434,-0.023544,0.036169,0.029215,-0.021684,0.036393,0.029347,-0.022861,0.036822,0.029459,-0.021957,0.034951,0.027546,-0.023607,0.036929,0.023566,-0.023047,0.036072,0.026041,-0.023406,0.036677,0.025155,-0.023586,0.037879,0.024657,-0.023229,0.036123,0.025292,-0.020669,0.035941,0.028884,-0.022909,0.035391,0.028115,-0.022058,0.035033,0.024158,-0.021344,0.034908,0.029001,-0.024647,0.033679,0.029321,-0.023061,0.034586,0.027644,-0.020952,0.035713,0.028774,-0.022192,0.036273,0.028205,-0.024974,0.036317,0.027692,-0.024953,0.036460,0.026374,-0.024754,0.036264,0.027859,-0.025124,0.036350,0.023206,-0.022960,0.036321,0.024106,-0.023608,0.036527,0.023254,-0.022572,0.036854,0.024185,-0.022821,0.036366,0.028661,-0.022385,0.034442,0.027412,-0.020838,0.035366,0.028814,-0.023790,0.034981,0.028370,-0.024595,0.034907,0.029184,-0.022811,0.036401,0.026683,-0.024090,0.037562,0.025094,-0.023996,0.036452,0.026033,-0.024026,0.037408,0.025286,-0.023924,0.037902,0.024704,-0.024329,0.038092,0.024470,-0.023500,0.038176,0.024580,-0.024153,0.038745,0.026342,-0.024949,0.037778,0.025421,-0.023871,0.038281,0.025864,-0.024427,0.038796,0.026709,-0.024787,0.037472,0.025969,-0.024479,0.038028,0.026732,-0.024684,0.037195,0.026185,-0.024413,0.036944,0.026917,-0.024460,0.036484,0.028618,-0.025030,0.036466,0.029143,-0.023659,0.036790,0.028544,-0.025196,0.035873,0.028519,-0.024242,0.037130,0.028349,-0.025211,0.037381,0.029046,-0.023345,0.037579,0.028464,-0.025468,0.038248,0.028822,-0.025387,0.037906,0.028897,-0.024840,0.037709,0.029064,-0.024120,0.037756,0.028733,-0.023575,0.038352,0.028531,-0.024810,0.038753,0.028411,-0.025424,0.038527,0.028183,-0.025605,0.038234,0.028528,-0.024203,0.038662,0.026915,-0.025458,0.038957,0.027492,-0.025304,0.038194,0.027585,-0.024795,0.037871,0.027846,-0.024462,0.036632,0.027606,-0.024091,0.036699,0.027076,-0.025663,0.037193,0.021347,-0.024651,0.038469,0.020922,-0.025425,0.037251,0.024241,-0.024108,0.036142,0.023746,-0.025722,0.037600,0.025225,-0.025370,0.035762,0.028177,-0.025827,0.036590,0.025739,-0.023872,0.037043,0.024920,-0.026309,0.038177,0.023732,-0.023753,0.033492,0.017710,-0.026083,0.036099,0.019217,-0.024452,0.035945,0.018762,-0.023558,0.037314,0.022352,-0.023891,0.037024,0.020238,-0.027255,0.037628,0.022286,-0.025795,0.037721,0.020359,-0.026090,0.036161,0.027114,-0.025566,0.037773,0.020302,-0.025381,0.032647,0.016886,-0.024907,0.034452,0.017642,-0.024002,0.037859,0.020804,-0.026242,0.036932,0.023110,-0.027328,0.032689,0.017015,-0.025650,0.034995,0.018169,-0.025969,0.036549,0.019782,-0.023357,0.036025,0.025548,-0.024561,0.037740,0.024435,-0.025526,0.036923,0.025151,-0.026928,0.037088,0.024794,-0.027052,0.037225,0.026500,-0.025854,0.036878,0.025870,-0.026300,0.035804,0.026769,-0.023823,0.036508,0.027104,-0.025942,0.036860,0.025993,-0.026358,0.036093,0.027712,-0.024579,0.038163,0.024044,-0.023651,0.037270,0.028655,-0.023472,0.036746,0.029275,-0.023768,0.036927,0.027741,-0.023546,0.036094,0.026990,-0.023720,0.035552,0.029279,-0.024674,0.036637,0.025451,-0.026751,0.037472,0.022880,-0.023940,0.037566,0.022825,-0.024141,0.036573,0.028009,-0.025377,0.035803,0.023159,-0.027716,0.037482,0.026818,-0.025456,0.038458,0.019816,-0.025909,0.035461,0.028548,-0.025480,0.036225,0.028155,-0.025307,0.035827,0.023504,-0.027369,0.037891,0.025504,-0.025155,0.035635,0.027130,-0.025455,0.036972,0.027650,-0.025576,0.035774,0.027901,-0.026035,0.038576,0.023255,-0.024102,0.035340,0.025540,-0.025881,0.035002,0.029100,-0.025244,0.038459,0.023909,-0.023887,0.038703,0.024222,-0.024162,0.037565,0.024230,-0.023709,0.037603,0.024612,-0.023615,0.037241,0.025844,-0.024243,0.037649,0.024878,-0.024412,0.037176,0.026518,-0.024150,0.037358,0.025276,-0.024134,0.038472,0.024913,-0.024656,0.038646,0.024940,-0.024774,0.038726,0.024226,-0.024749,0.038857,0.024867,-0.025312,0.038908,0.025356,-0.025863,0.039242,0.025903,-0.025235,0.039332,0.025978,-0.025767,0.038466,0.025776,-0.024994,0.038866,0.026348,-0.025315,0.038127,0.025724,-0.024768,0.038234,0.026325,-0.024994,0.036261,0.028714,-0.024711,0.037373,0.028083,-0.025657,0.036623,0.028289,-0.025617,0.037108,0.028255,-0.025696,0.036028,0.028605,-0.025189,0.037306,0.028667,-0.024265,0.038200,0.027839,-0.025853,0.037508,0.028157,-0.025179,0.037545,0.027894,-0.025715,0.037985,0.027821,-0.025831,0.038080,0.028012,-0.024177,0.037948,0.027012,-0.025785,0.038672,0.026932,-0.025951,0.039032,0.027241,-0.026133,0.038235,0.027691,-0.025055,0.039185,0.026344,-0.026098,0.038661,0.026201,-0.025986,0.038271,0.026274,-0.025665,0.038385,0.026713,-0.025145,0.037923,0.026989,-0.024475,0.037185,0.020119,-0.026413,0.037333,0.020736,-0.026062,0.039056,0.022381,-0.023788,0.038343,0.022086,-0.024122,0.036470,0.020544,-0.027199,0.038525,0.022755,-0.023921,0.036803,0.024968,-0.026717,0.036972,0.025416,-0.026476,0.037411,0.025132,-0.027399,0.036657,0.026655,-0.025929,0.037174,0.023363,-0.027774,0.037206,0.023378,-0.027569,0.037314,0.021430,-0.026939,0.038044,0.021837,-0.025842,0.036364,0.025598,-0.024197,0.037624,0.027970,-0.023443,0.037246,0.026722,-0.023792,0.036947,0.028767,-0.024410,0.037520,0.022441,-0.024770,0.035718,0.029218,-0.025794,0.035658,0.029248,-0.025807,0.035675,0.028466,-0.025739,0.036948,0.023973,-0.024878,0.036610,0.020971,-0.027436,0.036851,0.026743,-0.025899,0.037960,0.021509,-0.024897,0.036358,0.029184,-0.021014,0.033999,0.026725,-0.023300,0.033642,0.028592,-0.020077,0.036304,0.029178,-0.021708,0.035189,0.029089,-0.020407,0.033232,0.027314,-0.019662,0.035860,0.028532,-0.022315,0.033591,0.028215,-0.019718,0.033879,0.026082,-0.022429,0.035766,0.029626,-0.021788,0.034836,0.028107,-0.023127,0.034632,0.029109,-0.020859,0.035881,0.029442,-0.022277,0.035164,0.029592,-0.020818,0.033679,0.027790,-0.021620,0.032580,0.026926,-0.020774,0.034126,0.028417,-0.021810,0.035504,0.028544,-0.021027,0.034373,0.029288,-0.021512,0.035197,0.028313,-0.023656,0.034373,0.029297,-0.021308,0.034961,0.029368,-0.022795,0.033379,0.029417,-0.021223,0.034739,0.028828,-0.022506,0.033743,0.029079,-0.024462,0.032792,0.029353,-0.022824,0.034309,0.028918,-0.023667,0.034359,0.028245,-0.024311,0.032673,0.029073,-0.022314,0.035396,0.027919,-0.024757,0.034844,0.026892,-0.024874,0.034708,0.025715,-0.024607,0.034769,0.027826,-0.025091,0.036437,0.026840,-0.025616,0.037128,0.024914,-0.025169,0.035547,0.028147,-0.025858,0.036678,0.024758,-0.026435,0.035728,0.026836,-0.025472,0.035531,0.025442,-0.024375,0.037074,0.024022,-0.025519,0.036550,0.024984,-0.027095,0.036628,0.024663,-0.027257,0.036879,0.026204,-0.025825,0.036579,0.025606,-0.026353,0.035287,0.026714,-0.023568,0.036238,0.026646,-0.026005,0.036486,0.025514,-0.026497,0.035665,0.027670,-0.024353,0.036875,0.028737,-0.023642,0.036531,0.029357,-0.023860,0.036748,0.027743,-0.023424,0.035402,0.029322,-0.024717,0.036136,0.025186,-0.026894,0.037068,0.026639,-0.025586,0.035340,0.023171,-0.027592,0.037829,0.025165,-0.024974,0.035130,0.026984,-0.025487,0.036465,0.027590,-0.025556,0.035356,0.027753,-0.026134,0.034849,0.025209,-0.026064,0.034771,0.028320,-0.025451,0.034783,0.029026,-0.025514,0.037015,0.020962,-0.024525,0.037703,0.023277,-0.021701,0.037322,0.022459,-0.022642,0.037263,0.023280,-0.022459,0.038189,0.023473,-0.023576,0.037834,0.023445,-0.021732,0.038631,0.022409,-0.022457,0.035839,0.018711,-0.023320,0.037191,0.022130,-0.023726,0.037418,0.022922,-0.021473,0.038303,0.023084,-0.021237,0.039061,0.022214,-0.022027,0.039224,0.022550,-0.022327,0.037854,0.022283,-0.022181,0.037618,0.022725,-0.023257,0.038302,0.023435,-0.022972,0.038179,0.022710,-0.023610,0.037480,0.019785,-0.025241,0.032503,0.016726,-0.024892,0.034226,0.017458,-0.023797,0.037648,0.020190,-0.026306,0.036974,0.020537,-0.023325,0.038108,0.022268,-0.023173,0.037180,0.023338,-0.022761,0.038232,0.023925,-0.023458,0.037323,0.022649,-0.023666,0.037183,0.022530,-0.023769,0.038319,0.023648,-0.023402,0.038485,0.022782,-0.024065,0.038241,0.023476,-0.023649,0.036837,0.022240,-0.023022,0.036582,0.022893,-0.023651,0.036360,0.023298,-0.022356,0.037420,0.024129,-0.023485,0.036641,0.024023,-0.022875,0.037253,0.024441,-0.023400,0.037012,0.024092,-0.023933,0.035530,0.023914,-0.021724,0.036246,0.025853,-0.023793,0.035283,0.025932,-0.022848,0.036704,0.019775,-0.024269,0.034138,0.021784,-0.023013,0.032284,0.023441,-0.023085,0.035559,0.023652,-0.024089,0.038595,0.024053,-0.023798,0.035731,0.024830,-0.020678,0.033660,0.023847,-0.019549,0.033373,0.023461,-0.019639,0.030532,0.024906,-0.020218,0.030218,0.026746,-0.018785,0.032282,0.027029,-0.019198,0.034419,0.027422,-0.022270,0.035110,0.024903,-0.020060,0.032974,0.023086,-0.020795,0.033215,0.027301,-0.019821,0.038318,0.020605,-0.025406,0.035490,0.023592,-0.025680,0.036085,0.020398,-0.027534,0.037276,0.019729,-0.026068,0.035732,0.027131,-0.023737,0.034982,0.023023,-0.027925,0.037900,0.019253,-0.025771,0.033526,0.017736,-0.026310,0.037051,0.021643,-0.025998,0.036509,0.023061,-0.027540,0.032403,0.016736,-0.025729,0.034827,0.017964,-0.026091,0.036887,0.019756,-0.026370,0.038236,0.022119,-0.024052,0.037762,0.021226,-0.024723,0.038293,0.022648,-0.023760,0.036765,0.020265,-0.026356,0.038874,0.022354,-0.023628,0.036030,0.020418,-0.027347,0.036697,0.020051,-0.027518,0.037814,0.021493,-0.025862,0.036879,0.020841,-0.026987,0.036612,0.023311,-0.027904,0.036681,0.023183,-0.027962,0.037058,0.024999,-0.027541,0.036482,0.024821,-0.026796,0.036683,0.025147,-0.026538,0.035978,0.028150,-0.025215,0.036389,0.026279,-0.025991,0.034970,0.028694,-0.024594,0.034467,0.028152,-0.025359,0.036245,0.027898,-0.025465,0.036590,0.026798,-0.023549,0.035548,0.025493,-0.023996,0.037337,0.027913,-0.023093,0.036831,0.028722,-0.024024,0.035459,0.029233,-0.025900,0.035374,0.028398,-0.025795,0.035425,0.029311,-0.025857,0.037091,0.022537,-0.024713,0.036370,0.023976,-0.024757,0.036516,0.026444,-0.025944
PC4,-0.047108,-0.029963,-0.008586,0.064151,0.019316,0.007715,0.065438,0.017678,0.007564,0.078443,0.010893,0.006273,0.081761,0.010059,0.003993,0.066784,0.015138,0.003016,0.075027,-0.019100,-0.006449,0.078127,-0.018823,-0.004738,-0.005504,-0.022203,-0.000908,-0.037426,-0.036970,-0.006613,-0.070204,-0.019907,-0.000364,0.006964,-0.033236,-0.008814,-0.027582,-0.037501,-0.009181,0.013991,-0.037793,-0.008508,-0.058193,-0.024797,-0.003610,-0.017027,-0.015205,0.002259,0.069106,-0.011287,0.000063,-0.064373,-0.024776,-0.003290,-0.038712,-0.034761,-0.008102,0.004843,-0.031247,-0.004188,0.073684,0.010878,0.002914,0.064042,0.019265,0.005193,0.062571,0.013527,0.001518,0.060767,0.008118,-0.000226,0.051805,0.022805,0.000098,0.057585,0.014591,-0.000661,0.058197,0.009605,-0.002559,0.047296,0.012098,-0.003701,0.043995,0.023501,-0.000929,0.045429,0.021913,0.002397,0.049283,0.007996,0.000646,0.038671,0.019299,0.001471,0.082753,0.005173,0.002378,0.059787,-0.014604,-0.006554,0.038631,0.020333,-0.001585,0.044377,-0.032923,-0.007044,0.008600,-0.004970,0.007593,0.037554,-0.026994,-0.000888,0.030477,-0.026456,-0.010275,-0.027656,-0.023819,-0.005500,-0.018499,-0.036095,-0.007837,-0.008194,-0.036857,-0.009027,-0.041269,-0.020226,-0.003366,-0.014211,-0.031170,-0.006919,0.030591,0.006065,0.008104,0.056697,0.019144,0.004383,0.037526,0.013339,0.007409,0.042492,-0.013321,-0.005125,0.047456,-0.000248,0.000214,0.071084,0.015421,0.006753,-0.031078,-0.039000,-0.009185,0.018532,-0.037045,-0.009708,0.085828,0.007605,0.003375,-0.070760,-0.023501,-0.000977,-0.072156,-0.033303,-0.003920,0.039943,-0.033772,-0.011601,-0.009404,-0.039225,-0.010000,-0.050005,-0.029235,-0.004241,-0.008340,-0.022604,-0.006713,0.016333,-0.016202,-0.007261,-0.030945,-0.027844,-0.005391,0.076723,0.004185,0.002460,0.061525,-0.002124,0.002357,0.062962,0.020714,0.006376,0.053173,0.020470,0.005845,0.023639,-0.017595,0.003075,0.056699,-0.001784,0.003497,-0.064051,-0.034536,-0.006355,-0.074814,-0.025602,-0.003220,-0.057958,-0.037420,-0.008305,0.023532,0.007130,0.008147,0.034043,0.017891,0.006356,0.031156,0.013847,0.008402,0.036320,0.016672,0.006437,0.030407,0.016114,0.005476,0.038183,0.009053,0.001333,0.032817,0.014195,0.003200,0.020884,-0.004429,-0.001972,0.032650,0.002428,0.000064,0.022355,0.007025,0.002338,0.007689,-0.000374,0.001627,0.024005,0.011001,0.005482,0.006910,0.003674,0.004390,0.025331,0.012164,0.007302,0.014993,0.005753,0.006667,-0.055474,-0.015185,0.000288,-0.051499,-0.018860,-0.000869,-0.054100,-0.017416,-0.001071,-0.055931,-0.018286,-0.000247,-0.047609,-0.021077,-0.002391,-0.038126,-0.014929,0.000331,-0.038898,-0.017584,-0.002607,-0.039959,-0.011834,-0.000037,-0.040258,-0.010959,0.001393,-0.040916,-0.013253,0.001320,-0.015622,-0.008994,0.004283,-0.025877,-0.006778,0.002447,-0.025995,-0.006541,0.001044,-0.020013,-0.011827,-0.003048,-0.022213,-0.006090,0.003477,0.002851,-0.007803,-0.003090,-0.010350,-0.003460,0.001075,-0.011845,-0.001377,0.003513,-0.005857,-0.001237,0.004761,0.004898,-0.000942,0.006612,-0.056565,-0.010076,-0.001244,0.033601,0.026520,0.001652,0.022782,0.033074,0.005978,0.040690,0.024736,0.003806,-0.008638,0.031892,0.018018,-0.028120,-0.007230,-0.000970,-0.069522,-0.004938,0.011412,0.035326,0.019545,0.008343,-0.037262,-0.004219,0.004073,0.043328,0.024133,0.002494,0.042961,0.020944,0.002178,0.049131,0.002647,-0.003615,0.054101,0.010097,-0.000650,0.040335,0.025572,0.000964,0.015242,0.034564,0.008105,0.009078,0.002307,0.001686,0.019288,0.032220,0.004890,-0.066069,-0.008761,0.001702,0.027036,0.028896,0.003790,0.048342,0.023869,0.002848,0.051268,0.018260,0.000924,0.017407,0.034316,0.006023,-0.003987,0.016231,0.005472,0.042667,0.025666,0.004431,0.045743,0.011506,-0.000606,0.054596,0.003308,-0.003259,-0.040886,0.020272,0.009418,-0.006392,-0.005929,0.001081,-0.021711,0.005249,0.004992,-0.037738,0.018969,0.010823,-0.043144,-0.009290,-0.001882,-0.049642,-0.007464,0.002469,-0.053962,0.007792,0.007823,-0.067287,-0.005450,0.006000,-0.061366,-0.005438,0.006871,-0.062085,-0.000135,0.010927,0.040943,0.023359,0.003947,-0.020706,-0.007477,0.010813,-0.041479,-0.013633,0.007466,0.001085,0.004043,0.010646,0.021495,0.014105,0.010527,-0.060882,-0.016958,0.005563,-0.052154,0.002493,0.009038,0.035648,0.024942,0.002720,0.027551,0.023105,0.002350,-0.057550,-0.016861,-0.003391,-0.022695,0.037130,0.016744,-0.022312,-0.012068,-0.005175,0.015438,0.037483,0.006120,-0.070411,-0.011424,0.002058,-0.065434,-0.013483,-0.001584,-0.044955,0.022887,0.014263,0.004176,-0.007254,-0.004727,-0.067111,-0.000260,0.010631,-0.041110,-0.015107,-0.004704,-0.073282,-0.005960,0.010164,0.033326,0.017259,0.001110,-0.059162,0.007251,0.010311,-0.072496,-0.017532,0.003443,0.044572,0.004174,-0.001732,0.033236,-0.004711,-0.006881,0.044499,0.024203,0.004053,0.042235,0.022682,0.005160,0.026776,0.021147,0.010794,0.025872,0.023190,0.007676,0.021050,0.019176,0.013106,0.026839,0.022270,0.007999,0.021509,0.021043,0.005904,0.017995,0.018738,0.004657,0.024180,0.017762,0.002791,0.023363,0.014526,-0.000259,0.014974,0.008841,-0.002786,0.015389,0.020360,0.004098,0.002743,0.014085,0.003053,0.018941,0.020994,0.007386,0.006455,0.017879,0.007292,0.022745,0.023331,0.009680,0.011118,0.017943,0.010320,-0.048189,-0.009965,0.006192,-0.051036,-0.008672,-0.000987,-0.051398,-0.002482,0.004461,-0.055273,-0.007094,0.000550,-0.052943,-0.007259,0.006288,-0.037057,-0.006091,0.008415,-0.042332,-0.006309,-0.001037,-0.038673,-0.001837,0.007508,-0.040673,0.002316,0.005556,-0.040832,0.000695,0.002096,-0.017510,0.001788,0.011249,-0.024222,0.009574,0.006659,-0.026728,0.006188,0.002328,-0.023821,-0.001334,-0.001866,-0.023836,0.004224,0.008701,-0.003239,0.002896,-0.002734,-0.010888,0.011845,0.002507,-0.008223,0.014555,0.006928,-0.005140,0.012025,0.010059,0.004656,0.011751,0.013612,0.022654,0.031002,0.005251,0.025410,0.008557,0.001730,0.036476,-0.002129,-0.005023,0.041575,0.012233,-0.000642,0.018131,0.018494,0.005658,0.044088,0.003100,-0.002718,-0.047200,0.003201,0.006792,-0.055852,-0.003360,0.004465,-0.030426,0.015043,0.008070,-0.062192,-0.005360,0.003582,-0.007445,0.027221,0.008852,-0.015411,0.030463,0.011546,0.001071,0.043167,0.014165,0.013717,0.034717,0.014375,-0.000877,0.021327,0.010519,-0.036235,0.002221,0.012950,-0.023111,0.014387,0.005616,-0.050785,-0.005188,0.013350,0.032609,0.030021,0.002777,-0.067203,-0.011286,0.010890,-0.073280,-0.011262,0.006518,-0.071175,-0.009222,0.003633,0.021249,0.025729,0.009009,0.006495,0.041669,0.009455,-0.055896,-0.008589,0.001977,0.031116,0.023811,0.002334,-0.005134,-0.024539,0.002179,0.007665,-0.035972,-0.013017,0.016031,-0.045280,-0.009519,-0.013266,-0.017121,0.006978,0.007392,-0.036127,-0.002583,0.046815,-0.041639,-0.009247,0.011082,-0.006511,0.009463,0.043303,-0.031738,-0.000450,0.029757,-0.031394,-0.015791,-0.028121,-0.028491,0.000659,-0.023173,-0.038065,-0.012251,-0.008529,-0.044900,-0.010127,-0.037619,-0.021486,0.003485,-0.017367,-0.038566,-0.003321,0.015827,-0.044216,-0.013671,0.042523,-0.041188,-0.015164,-0.017952,-0.044439,-0.013193,0.024372,-0.019077,0.003775,-0.047121,-0.032033,-0.005562,-0.044893,-0.038600,-0.010419,-0.031153,-0.042767,-0.009677,-0.057249,-0.027288,-0.000110,-0.043575,-0.038709,-0.007316,-0.039344,-0.044087,-0.011677,-0.079272,-0.026829,0.000454,-0.076851,-0.035709,-0.004393,-0.068904,-0.037251,-0.008884,-0.079029,-0.030354,-0.004321,-0.067753,-0.040743,-0.008514,-0.055444,-0.030151,-0.007804,-0.007098,-0.025030,-0.010143,0.015529,-0.019648,-0.012424,-0.032348,-0.029404,-0.010047,-0.058562,-0.010696,-0.001763,-0.028522,-0.009591,-0.001208,-0.070535,-0.004811,0.012378,-0.039356,-0.004910,0.004462,-0.069518,-0.008853,0.001619,-0.042196,0.021460,0.009887,-0.007669,-0.008831,0.001459,-0.023462,0.005538,0.005370,-0.041177,0.018878,0.011223,-0.043696,-0.010535,-0.002370,-0.051409,-0.008042,0.002660,-0.055031,0.008898,0.007611,-0.071049,-0.007195,0.006293,-0.063758,-0.008563,0.007093,-0.063442,0.000468,0.011264,-0.019422,-0.007928,0.013998,-0.041246,-0.013475,0.010322,0.001828,0.004298,0.013131,-0.062083,-0.016742,0.007691,-0.055416,0.000756,0.009545,-0.025042,-0.011175,-0.005895,-0.047206,0.023984,0.014980,0.001980,-0.006642,-0.005832,-0.070354,-0.000175,0.010963,-0.045171,-0.012910,-0.006174,-0.076750,-0.005839,0.010842,-0.061613,0.008190,0.010962,-0.074785,-0.009155,0.002322,-0.077294,-0.017148,0.004914,0.034913,0.027195,0.001474,0.067263,0.013734,0.001284,0.074243,0.010300,0.001286,0.063870,0.020529,0.003959,0.045269,0.024860,0.002518,0.063924,0.013549,0.000980,0.061116,0.007755,-0.001508,0.056053,0.010063,-0.000710,0.041286,0.025831,0.000926,0.053857,0.024293,0.000372,0.062203,0.014023,-0.000206,0.058812,0.008718,-0.003119,0.046915,0.010684,-0.003704,0.041269,0.025123,-0.000718,0.043165,0.023889,0.002066,0.047838,0.007851,-0.000202,0.036545,0.020208,0.000699,0.028640,0.030527,0.003932,0.048557,0.025036,0.002898,0.052790,0.018399,0.000793,0.019298,0.035507,0.006041,0.053688,0.001441,-0.003841,0.035365,0.022453,-0.001237,0.055082,0.021509,0.003328,0.044428,0.023375,0.003634,0.037517,0.025687,0.002744,0.029887,0.023751,0.002121,0.052601,0.000148,-0.001381,0.036067,0.017297,0.000719,0.048416,0.002996,-0.002443,0.077293,0.006270,0.002089,0.066990,0.000381,0.000791,0.062436,0.023284,0.005357,0.046878,0.024507,0.004383,0.053370,0.023974,0.005050,0.046339,0.023397,0.005006,0.043776,0.025486,0.003589,0.064062,0.023048,0.007282,0.036994,0.019692,0.008626,0.045059,0.017226,0.009414,0.046794,0.000492,-0.004338,0.085836,0.003929,0.000574,0.066105,-0.020146,-0.012878,0.050248,-0.014569,-0.011485,0.035891,-0.006509,-0.008349,0.067477,0.018498,0.007963,0.084681,0.005935,0.006134,0.092148,0.007130,0.002722,0.078261,-0.029789,-0.010928,0.085286,-0.028251,-0.007036,0.074763,-0.014747,0.000640,0.039114,0.006221,0.010960,0.075814,0.015211,0.008163,0.094260,0.000035,0.000235,0.061018,-0.002863,0.004994,0.023339,0.035416,0.007518,-0.009813,0.033246,0.019496,0.008034,0.043866,0.009841,0.021776,0.035122,0.005045,0.021585,0.015454,0.011279,-0.024409,0.038889,0.017934,0.017026,0.039756,0.005813,0.041952,0.020081,0.002112,0.008117,0.001738,0.002358,-0.006456,0.016383,0.006018,0.042131,0.027564,0.005048,0.044752,0.010179,-0.000665,0.023891,0.032177,0.005331,0.041388,0.013306,-0.000245,0.033665,0.023686,0.002120,0.046682,0.002312,-0.002885,0.024047,0.008279,0.002161,0.036882,-0.004878,-0.006220,0.016657,0.017819,0.006064,0.013488,0.036248,0.008951,0.014920,0.036272,0.015037,0.003245,0.046182,0.014241,-0.018873,0.031541,0.012596,-0.009350,0.027501,0.009349,-0.032252,0.014894,0.008450,-0.049608,0.002758,0.007054,-0.057962,-0.004286,0.004591,-0.068180,-0.012089,-0.002229,-0.065017,-0.005212,0.003687,-0.071283,-0.027073,-0.005726,-0.081152,-0.018356,0.000154,-0.059066,-0.015288,-0.005055,-0.024601,0.015256,0.004668,-0.002055,0.021992,0.010682,-0.037198,0.002680,0.013596,-0.050678,-0.004882,0.014426,-0.068969,-0.011845,0.011229,-0.074269,-0.009438,0.003713,-0.076731,-0.011775,0.006761,0.033109,0.030215,0.003451,0.021592,0.026156,0.009906,-0.058854,-0.009130,0.002169
PC5,-0.049938,0.031876,-0.017488,-0.032920,-0.017365,0.025128,-0.038365,-0.015141,0.024207,-0.034085,-0.011546,0.020392,-0.023476,-0.013830,0.018309,-0.008881,-0.020382,0.022588,0.016073,0.006063,0.002781,-0.028262,0.007199,0.006158,-0.056413,0.024146,-0.006352,0.012620,0.023732,-0.028470,-0.012835,0.020914,-0.024228,0.039069,0.012351,-0.019106,-0.021984,0.029734,-0.023806,-0.029005,0.022494,-0.014705,-0.048289,0.030238,-0.013243,-0.052528,0.022673,0.000047,-0.064284,0.010006,0.010031,0.005088,0.020131,-0.024938,-0.036532,0.031196,-0.022735,-0.048067,0.025359,-0.010445,0.000699,-0.017762,0.020522,-0.009182,-0.014335,0.022421,-0.006525,-0.020142,0.020840,0.005814,-0.018011,0.016040,-0.019209,-0.018787,0.024879,-0.013159,-0.022798,0.023171,-0.001355,-0.021167,0.018923,0.005145,-0.021688,0.016249,-0.010028,-0.019277,0.022009,0.008948,-0.014674,0.017736,0.018043,-0.020398,0.012599,0.011242,-0.018037,0.014622,0.009811,-0.013048,0.016665,0.038917,-0.005823,-0.000729,0.008519,-0.020901,0.016812,-0.029517,0.016050,-0.006998,-0.067916,0.014830,0.001255,-0.052814,0.021373,-0.002988,0.038108,0.003465,-0.013294,-0.049947,0.028055,-0.010823,0.030952,0.016334,-0.023280,-0.023374,0.026914,-0.019836,-0.048855,0.026238,-0.003775,-0.039501,0.029121,-0.015358,-0.073065,0.006841,0.011347,-0.007803,-0.011760,0.019721,-0.052142,-0.002655,0.016968,0.046863,-0.001687,-0.003651,0.025543,-0.014047,0.006404,-0.036834,-0.011602,0.020662,-0.006855,0.027739,-0.027967,0.003675,0.018386,-0.018557,-0.002617,-0.010389,0.016327,-0.032851,0.027062,-0.021970,-0.035216,0.030269,-0.027951,0.007934,0.011074,-0.010276,0.004321,0.022124,-0.023970,0.022223,0.017871,-0.024870,0.051269,0.003213,-0.016293,0.055533,-0.001384,-0.010901,0.039306,0.010578,-0.020809,0.010692,-0.012961,0.017970,0.025755,-0.011737,0.008922,-0.021463,-0.015468,0.023683,-0.026146,-0.011616,0.022072,-0.067294,0.022016,-0.002772,-0.076119,0.010611,0.012331,-0.003371,0.026596,-0.032045,-0.005725,0.024521,-0.030643,-0.019932,0.030467,-0.028976,-0.053001,0.003158,0.006619,-0.022085,-0.009479,0.013857,-0.045655,-0.003042,0.012195,-0.029756,-0.006529,0.014295,-0.008539,-0.016817,0.011276,0.007589,-0.025599,0.010338,0.001722,-0.026056,0.009836,0.037871,-0.009753,-0.003537,0.020192,-0.017010,0.003943,0.002224,-0.018977,0.004723,0.013789,-0.007988,-0.000780,-0.017513,-0.011361,0.006272,-0.007905,-0.001819,0.002103,-0.031451,-0.004744,0.008231,-0.031045,0.003194,0.004870,-0.006394,0.016756,-0.015825,-0.033400,0.025973,-0.008170,0.007861,0.015798,-0.018829,-0.022414,0.022849,-0.012882,0.019747,0.014036,-0.019943,-0.025495,0.023048,-0.001824,0.027020,0.008618,-0.017081,0.012989,0.011313,-0.012861,0.001487,0.017402,-0.009428,-0.010850,0.022996,-0.004733,-0.030648,0.020419,0.001983,0.004930,0.015539,-0.004569,0.018354,0.007048,-0.009372,0.038674,-0.000551,-0.012319,-0.009418,0.018494,-0.000393,0.041782,-0.002954,-0.009176,0.022981,0.000226,-0.005504,0.002641,0.010016,-0.001350,-0.017833,0.012365,0.001986,-0.044423,0.013382,0.003586,0.028398,0.007823,-0.018619,0.023224,-0.018959,0.016285,-0.028584,-0.018428,0.015917,-0.041486,-0.012013,0.014761,-0.059885,-0.007154,0.011762,0.054161,0.002769,-0.014407,-0.048479,0.023199,-0.004506,-0.055416,-0.006998,0.014627,0.045380,0.007815,-0.011211,-0.006265,-0.011357,0.015119,0.095553,-0.032299,0.006225,0.081297,-0.021557,0.001067,0.062687,-0.023796,0.010393,0.012245,-0.015418,0.016397,0.066127,-0.037385,0.013493,0.078073,-0.012939,-0.007969,0.022597,-0.025519,0.014669,0.007730,0.012014,-0.017606,0.024418,-0.022218,0.014813,0.079188,-0.032911,0.012258,0.068024,-0.028036,0.012592,0.038770,-0.025809,0.013393,0.078440,-0.024454,0.001377,0.086226,-0.035751,0.010940,0.092832,-0.027112,-0.000168,0.063251,-0.020639,0.007985,-0.060988,0.002780,0.001864,0.066975,-0.003404,-0.010604,0.066346,-0.012324,-0.004397,0.020685,-0.002169,0.002327,0.041590,0.004093,-0.017570,0.030254,0.009790,-0.014269,-0.058303,0.012849,-0.001676,-0.009383,0.015769,-0.012952,0.000448,0.015733,-0.009628,-0.054246,0.020159,-0.000051,-0.003979,-0.011094,0.015921,-0.068629,0.019524,-0.002763,-0.060234,0.023255,-0.004253,-0.079818,0.012383,0.000750,-0.079602,0.002670,0.009414,-0.052463,0.026621,-0.012441,0.012241,0.013616,-0.003681,0.013832,-0.016678,0.016647,0.024186,-0.019093,0.014543,0.024461,0.010657,-0.022094,-0.008528,-0.014109,0.018590,0.056643,-0.003492,-0.015187,0.010198,-0.025903,0.018405,-0.015256,0.019920,-0.020035,0.009761,0.013706,-0.022491,-0.023110,-0.000374,0.009724,0.062260,-0.007682,-0.008803,-0.031362,0.021266,-0.002743,0.042952,0.003106,-0.019163,-0.032953,0.022132,-0.008330,0.031420,-0.023250,0.011631,-0.029064,0.015382,0.002184,-0.036582,0.025459,-0.019983,0.037504,-0.020368,0.009189,0.062459,-0.013662,-0.001065,-0.028815,-0.011071,0.015957,-0.029062,-0.010090,0.016078,-0.046734,-0.004730,0.009055,-0.015999,-0.012206,0.012443,-0.059228,0.000488,0.005061,-0.033274,-0.009069,0.011983,0.003208,-0.019637,0.010698,0.019080,-0.026220,0.008942,0.026382,-0.029537,0.009793,0.029701,-0.029510,0.006674,0.037729,-0.026916,0.000798,0.007345,-0.029202,0.004882,0.011182,-0.023891,0.000369,-0.014328,-0.017406,0.005853,-0.014910,-0.012865,0.002351,-0.029660,-0.011574,0.006767,-0.033743,-0.005004,0.003118,-0.041251,0.020219,-0.011358,0.016946,0.006736,-0.017533,-0.014358,0.011762,-0.014265,0.005500,0.008526,-0.017118,-0.031131,0.018107,-0.013204,-0.041628,0.019884,-0.005593,0.024761,0.000577,-0.015156,-0.028349,0.013503,-0.008996,-0.010528,0.006588,-0.010328,0.007477,0.002113,-0.012402,-0.047398,0.012935,-0.003649,-0.011883,-0.001819,-0.006949,0.010622,-0.007831,-0.007669,0.033666,-0.011616,-0.011745,-0.026926,0.009665,-0.004763,0.040037,-0.018303,-0.007076,0.014208,-0.017151,-0.003882,-0.010579,-0.008408,-0.002530,-0.030077,0.001679,-0.001177,-0.057307,0.005485,-0.000134,0.061635,-0.031639,0.012827,0.089921,-0.026090,-0.001536,0.073096,-0.017285,-0.001033,0.047938,-0.022461,0.009882,0.091414,-0.035661,0.006931,0.054882,-0.020425,0.006623,0.032650,0.005348,-0.007953,0.017081,0.010299,-0.011255,0.047488,-0.011506,-0.000460,0.007580,0.011845,-0.014629,0.056249,-0.026828,0.007759,0.031509,-0.023187,0.010562,0.012848,-0.023327,0.020691,-0.044161,-0.015340,0.016705,-0.078954,0.001087,0.004005,-0.068468,0.015664,-0.004600,-0.074112,0.007545,-0.003012,-0.059181,0.019217,-0.001811,-0.041167,-0.016146,0.014543,-0.052409,0.024337,-0.008972,-0.033452,0.024141,-0.015198,-0.014632,0.020385,-0.015983,-0.061287,-0.009509,0.011015,0.040166,-0.031884,0.014339,0.018794,0.011076,-0.015622,0.045262,-0.024176,0.011970,-0.074639,0.029645,-0.009228,0.056763,0.011411,-0.019760,-0.030509,0.026717,-0.016054,-0.076865,0.025699,-0.006067,-0.062964,0.031957,-0.011071,-0.027634,0.019357,-0.008065,-0.089293,0.020749,-0.002197,-0.067454,0.029501,-0.004013,0.056321,0.002333,-0.012012,-0.065069,0.032773,-0.014019,0.043271,0.016022,-0.026131,-0.023363,0.028027,-0.020957,-0.068406,0.029424,-0.008091,-0.054392,0.034120,-0.016901,0.015310,0.019238,-0.020363,0.020439,0.012560,-0.010570,0.011403,0.023540,-0.026863,-0.085890,0.026806,-0.004541,-0.062820,0.035176,-0.017953,0.018339,0.024900,-0.033155,-0.023336,0.031231,-0.026020,-0.062950,0.033720,-0.014662,-0.048381,0.034730,-0.023020,-0.003854,0.030402,-0.030818,-0.040746,0.030034,-0.026516,-0.035709,0.031699,-0.031042,-0.003003,0.030380,-0.035258,-0.008463,0.026904,-0.034900,-0.028130,0.032878,-0.032135,0.035064,0.017332,-0.028199,0.071416,0.000458,-0.017035,0.073843,-0.003351,-0.010064,0.060978,0.006972,-0.022414,0.032056,0.009064,-0.019672,0.060450,0.004903,-0.015657,-0.053293,0.024065,-0.003425,0.049950,0.008017,-0.011377,0.010551,0.012292,-0.018358,-0.067732,0.002892,0.002598,0.074084,-0.001175,-0.012788,0.071551,-0.013474,-0.004333,0.025080,-0.001833,0.002563,0.048463,0.004398,-0.018472,0.034160,0.011389,-0.014605,-0.065961,0.012730,-0.001363,-0.005074,0.016711,-0.013152,0.005247,0.017715,-0.009454,-0.060733,0.020429,0.001384,-0.077579,0.020007,-0.002707,-0.067662,0.023255,-0.003932,-0.086019,0.012522,0.001405,-0.058086,0.027129,-0.012400,0.015172,0.015709,-0.003334,0.063939,-0.005891,-0.015072,-0.024090,-0.000611,0.011176,0.068241,-0.009400,-0.008803,-0.031319,0.023007,-0.001742,0.051251,0.001091,-0.019874,-0.033705,0.023576,-0.007578,-0.029316,0.015684,0.003580,-0.013903,0.021338,-0.020793,-0.037466,0.026237,-0.021541,0.023837,-0.019812,0.017058,-0.010866,-0.021489,0.023159,0.001721,-0.018431,0.020100,-0.012014,-0.015452,0.022959,-0.007583,-0.012341,0.016132,-0.010682,-0.021589,0.022580,0.005253,-0.018659,0.016749,0.058498,-0.023465,0.011476,0.012293,-0.016091,0.017177,-0.024516,-0.018098,0.026285,-0.014135,-0.023290,0.024130,0.000535,-0.020815,0.018644,0.010414,-0.022201,0.015494,-0.006212,-0.019005,0.021822,0.003361,-0.015890,0.018708,0.016931,-0.021250,0.012375,0.014726,-0.020036,0.014969,0.026504,-0.023798,0.015793,0.077738,-0.033030,0.012942,0.066411,-0.027987,0.013304,0.041715,-0.027233,0.013991,0.061045,-0.019777,0.007465,0.013258,-0.021291,0.016832,-0.012473,-0.012715,0.021385,-0.006944,-0.011234,0.016612,0.011366,-0.017372,0.017977,0.023567,-0.019863,0.016033,0.030533,-0.015696,0.009474,0.033598,-0.022897,0.012298,0.039799,-0.021081,0.009824,0.015130,-0.016233,0.019671,0.030306,-0.015026,0.013799,-0.022529,-0.016160,0.023898,-0.031494,-0.012123,0.017179,-0.027999,-0.013199,0.021306,-0.032652,-0.011276,0.017614,-0.042084,-0.013837,0.016174,-0.038012,-0.018379,0.027667,-0.060464,-0.007607,0.015125,-0.066389,-0.006426,0.020819,0.081287,-0.020189,-0.000135,0.025159,-0.015216,0.017026,0.051743,-0.004847,0.003323,0.061465,-0.007331,0.004415,0.064646,-0.013479,-0.001518,-0.054405,-0.011904,0.025903,-0.041297,-0.011221,0.020339,-0.026459,-0.016386,0.018936,0.022733,0.010187,0.003427,-0.028439,0.009249,0.006223,-0.071942,0.013003,0.010675,-0.093017,0.008520,0.013327,-0.056317,-0.007668,0.023024,0.005956,-0.006924,0.016612,-0.093044,0.014710,0.013289,-0.032152,-0.019567,0.017554,-0.067215,-0.006899,0.012302,0.044283,-0.034822,0.015231,0.028215,-0.028548,0.015560,-0.084828,0.001705,0.009719,-0.007633,-0.014626,0.020554,0.017389,-0.028570,0.020072,0.099421,-0.032601,0.005241,0.085841,-0.013486,-0.009530,0.082135,-0.025130,0.001284,0.086039,-0.037060,0.011868,0.096213,-0.026855,-0.001597,0.061544,-0.032014,0.013480,0.044723,-0.022723,0.010690,0.044284,-0.023932,0.012601,0.052665,-0.020392,0.007218,0.095807,-0.026662,-0.003359,0.075116,-0.015425,-0.002465,0.095762,-0.036942,0.006939,0.067831,-0.039164,0.013877,-0.047111,-0.016242,0.018087,0.018749,-0.026194,0.022526,0.035352,-0.024452,0.011159,0.060253,-0.027507,0.007770,0.050823,-0.011423,-0.000634,0.035847,0.005975,-0.008154,0.020718,0.011094,-0.011559,0.009891,0.013653,-0.023857,0.010495,0.012570,-0.014798,0.011783,0.023269,-0.030458,-0.006218,0.022423,-0.029248,0.036025,0.007301,-0.022679,-0.083553,0.008220,-0.004505,-0.089646,0.001768,0.004493,-0.075588,0.016104,-0.004929,-0.065467,0.019593,-0.000946,-0.055332,0.025177,-0.008490,-0.012663,0.021793,-0.016013,-0.033301,0.025295,-0.015638,-0.048087,-0.016601,0.015012,-0.069914,-0.009379,0.011541,0.022441,0.012136,-0.015885
